{
    "trial_0": {
        "loss": 0.9294001721755152,
        "accuracy": 0.7186,
        "model_weights": [
            [
                [
                    -1.1699801530027791,
                    -1.2321489540495092,
                    1.7994487499915626,
                    0.49245489249072827,
                    1.015550048654242,
                    -0.267123256462197,
                    -0.057316976792394066,
                    0.48878441904638814,
                    -0.0782056491030204,
                    -0.9912798772765923,
                    -1.4081676255588216,
                    2.1056538290612394,
                    0.04275342450426785,
                    -1.1796500936527883,
                    0.5497107835194276,
                    -0.3615334166719084,
                    0.6757814630426774,
                    0.11537379922822642,
                    1.6490385051335439,
                    0.7987796176048608
                ],
                [
                    -0.24956137661493236,
                    -0.04422965991215229,
                    0.39156539544270774,
                    -0.11798755097702941,
                    0.10459177125229903,
                    -0.10634331989777167,
                    -1.753973853898765,
                    0.09947938057927774,
                    1.0780600954971502,
                    -1.9254460929595019,
                    0.23858903759196645,
                    -0.35640802628120316,
                    -0.6587042877662042,
                    0.41972800685011125,
                    0.6750529005241842,
                    -0.2493044189741778,
                    -1.3700637803650715,
                    -0.6527811728641169,
                    1.8235001692341948,
                    -0.6927075732776207
                ],
                [
                    0.47838279379944987,
                    -0.9352044916963661,
                    -0.3786143052452268,
                    -0.03573452824348489,
                    0.39325072717046233,
                    0.16553244856061655,
                    0.20342838740003388,
                    0.9138287955266289,
                    0.35442780121799927,
                    -0.5108751172977527,
                    0.34689881730474,
                    0.42111740371294226,
                    -1.1649195639010226,
                    -1.3784855838161758,
                    -0.5749087069384992,
                    -0.17325282836855774,
                    0.1419879365950112,
                    0.2617299170003705,
                    -0.7989591515277547,
                    -1.852026559708484
                ],
                [
                    0.8487734947098493,
                    0.025552478769001238,
                    2.97008161997892,
                    1.2468380094874723,
                    0.1510972428205366,
                    -0.6639886702618232,
                    0.2081019669312344,
                    0.4600639820972379,
                    0.2941686118442185,
                    1.106541549425436,
                    0.7959935719728368,
                    0.6530173412019364,
                    -1.133269671126887,
                    0.8628255970783749,
                    -1.4178113923783464,
                    0.091064233878094,
                    0.9265538941296158,
                    0.1077582861843543,
                    2.0049225785765046,
                    1.0002535644191732
                ],
                [
                    -0.7741682739109037,
                    -0.04460610069906766,
                    -0.8399058493786198,
                    -0.8710925095924823,
                    1.0597180018400683,
                    2.405616216961792,
                    1.2222654883443902,
                    -0.023348319933758705,
                    -1.7879099755199166,
                    -0.9792482976598396,
                    -0.35999204307304505,
                    1.109828179901117,
                    -1.3042358299529542,
                    -3.0101613422864255,
                    -0.8987227040467675,
                    0.8212148698755777,
                    0.662383723838506,
                    0.037564870860544816,
                    -1.3991735175796596,
                    0.21622000451474732
                ],
                [
                    0.8964688954206718,
                    0.2986407876770251,
                    -0.8260229975049657,
                    -0.1941939845950153,
                    0.0869602330273786,
                    0.7864656337884632,
                    1.1401134322566846,
                    -1.5404240956486852,
                    0.2947670724806362,
                    -0.3663272634156236,
                    -0.5446232582079025,
                    -1.1240943822432492,
                    -0.5006606701984833,
                    -0.39468354955695695,
                    -1.0712770851938682,
                    0.49321690428477694,
                    0.8267596305453565,
                    -0.9406985275019585,
                    0.048883617393543195,
                    0.10431919192999413
                ],
                [
                    -0.6365355716915836,
                    0.9397725585904053,
                    -2.2879092199640443,
                    0.835959947825004,
                    0.8211900650546706,
                    -0.9606599039987442,
                    0.9100419476328302,
                    -2.250632616538224,
                    0.2662393559268206,
                    1.2786602685653017,
                    1.102645221688285,
                    0.7142172536732827,
                    0.2907248775972675,
                    -1.1640640439983718,
                    -0.16350535392804053,
                    0.22728260348006196,
                    0.4214062613211395,
                    -0.5834354639466435,
                    1.0264236266676299,
                    0.3914626110132305
                ],
                [
                    0.6722018971773168,
                    1.4795183102106664,
                    -0.7118831893171914,
                    0.6137099873658338,
                    -0.20970603658233827,
                    0.6753112009419717,
                    1.4145629112312876,
                    0.13775253980623703,
                    0.23622960927457654,
                    0.3064858858012225,
                    0.0977855008551289,
                    -0.21624142330359222,
                    0.6419214324825057,
                    0.9643839726254907,
                    1.588411873993878,
                    -0.09064636372299988,
                    -1.2616827010586937,
                    -0.11336154398172128,
                    -1.113749675592128,
                    0.21132882201200953
                ],
                [
                    0.8143396499080732,
                    -1.6167923543857425,
                    -0.24928721311927718,
                    1.9710373787228448,
                    -2.331215096046438,
                    -1.0444842011321211,
                    -3.090773825373473,
                    -1.6862719829987638,
                    1.333499858840812,
                    -0.07332923136545182,
                    1.0587079310437615,
                    0.22203555251498217,
                    0.6119878599970018,
                    0.30102812801844797,
                    -0.9487693654774095,
                    1.0490438126194899,
                    -1.0494136317284497,
                    0.7868858716334876,
                    -0.22326485293347562,
                    -0.5513666251657108
                ],
                [
                    0.3058897487040658,
                    -0.2900040005298145,
                    -1.6693195663202967,
                    -1.7111462521294043,
                    0.0419467291502055,
                    -1.2125257478149782,
                    -0.5762423329181323,
                    0.8330971467356528,
                    -2.4668675797728987,
                    1.3074613672510602,
                    -0.24574468583467216,
                    -1.1858459000391637,
                    0.5033916938657259,
                    0.5026831281081794,
                    -1.433229107103222,
                    1.0483283481834342,
                    0.6328819415918971,
                    0.2618278977482307,
                    -0.5571292696315034,
                    0.6691950917261091
                ],
                [
                    -0.3778027580013298,
                    3.200491867572943,
                    -0.8446302912346557,
                    -1.748848611782773,
                    0.8032031154205457,
                    1.6056336965642266,
                    1.0044704645547173,
                    0.4008801999129939,
                    -0.5692658225373822,
                    1.191043384829006,
                    -2.2695745506871137,
                    0.4578794981937207,
                    0.8584366825522395,
                    1.0092444906591707,
                    -0.4893099117051456,
                    1.076349302640049,
                    0.5557954879525935,
                    1.1276167396619774,
                    -0.682606476590751,
                    1.3388807988628226
                ],
                [
                    0.6734440406354886,
                    0.5814644091934777,
                    -0.18528509881127117,
                    -0.4666708964788954,
                    -0.47382853029734395,
                    1.3870446680489188,
                    -0.2439772526860636,
                    0.7915722513856963,
                    -0.4680806312048806,
                    0.3673169671553795,
                    0.7354429615368963,
                    -1.2028208019361704,
                    0.758005303917971,
                    -0.9104327011331862,
                    -0.5356611104442509,
                    -1.0372825332314524,
                    -0.9996116848581209,
                    -0.700849177233969,
                    0.6737513010320597,
                    -0.4379951035652905
                ],
                [
                    0.4568274799349315,
                    1.021150570850337,
                    0.6484282942554885,
                    0.704459777310846,
                    0.542942263113463,
                    -1.29224241831746,
                    -1.1439738904441026,
                    -0.3591873049008896,
                    0.5985439958486136,
                    0.24480792495968515,
                    0.7731224138712058,
                    0.07296533513539452,
                    0.5108865410290743,
                    -1.8071060380519333,
                    0.15415999688264065,
                    0.5628008480612009,
                    -1.787798207022213,
                    1.4469458412390241,
                    0.8276808841538,
                    -0.15669859520193943
                ],
                [
                    0.017261909088199565,
                    -0.007203320018955151,
                    -0.6065194414593368,
                    0.044524828242545854,
                    0.28708901580964324,
                    0.8953375728277112,
                    -1.048952187224961,
                    -0.9770648728039866,
                    -0.2818678923175619,
                    0.614970856645546,
                    -0.35587606931810634,
                    1.4311886691713893,
                    0.9765237822815405,
                    0.7932134626399966,
                    -0.14083178720579634,
                    0.6557617351230051,
                    0.5761800231323454,
                    -0.042256690844596025,
                    0.334210034771285,
                    2.0807895268963343
                ],
                [
                    0.7075178480587231,
                    -1.8464145907777658,
                    -2.591874962031643,
                    0.8918167785513657,
                    -0.6915718819247383,
                    -0.36680268286529477,
                    -0.02564529221899323,
                    -0.3761362012566674,
                    0.1796889146155223,
                    0.407631370489533,
                    0.0460334273152554,
                    1.0430010904915907,
                    0.3073781890021079,
                    0.6812737311371538,
                    -0.06087018218326299,
                    0.6162748453977638,
                    -0.5310953623310071,
                    1.229616683071396,
                    0.2386516291228484,
                    1.8439118631797708
                ],
                [
                    0.8035877343604947,
                    0.5222924578583653,
                    -0.7737142753393743,
                    0.11152861373824603,
                    -0.00712547321233886,
                    1.4153296791059442,
                    0.05579878448610617,
                    -1.642227555661244,
                    -0.2526707161083557,
                    0.9868859423699555,
                    0.8254722838582391,
                    0.5274323560147579,
                    0.15771018474929333,
                    0.8736146959229115,
                    -0.351677835579552,
                    -0.9957796990642457,
                    1.2276353354675842,
                    -1.3769485259586043,
                    -0.8336759912759008,
                    -0.2505351515581507
                ],
                [
                    0.23561486613125548,
                    -0.3039702415188758,
                    0.966623111829398,
                    0.9611490429726254,
                    -0.9526099195329408,
                    0.23852932631999232,
                    -0.3129283096347673,
                    0.6522380890413461,
                    -0.30846307074161633,
                    -0.34449464618860004,
                    0.4521006895063576,
                    0.33648975880643905,
                    -0.21030790037553393,
                    0.825366253429296,
                    -0.5085629885031528,
                    -2.2572839409728975,
                    1.186774968063249,
                    0.5891469667881173,
                    0.01556849349001744,
                    0.08272392795536007
                ],
                [
                    -0.5815093604177163,
                    -0.2554015166232593,
                    0.15948962930051158,
                    -0.8773536420100408,
                    -1.6414919704784046,
                    -0.9877183005001287,
                    1.1251701915931727,
                    1.1268496137058233,
                    0.8284795523268152,
                    0.8371732234502054,
                    0.6683661155631504,
                    0.8126533209454729,
                    -0.5772263343078194,
                    -0.9441800868332749,
                    -0.21946610413389417,
                    0.7063166960938599,
                    -0.42497464177619027,
                    0.03497724077166753,
                    -1.3830784899125306,
                    -0.5412410927903599
                ],
                [
                    -1.31580818522045,
                    -2.191672999016154,
                    0.9337639096198633,
                    -1.6455955067618226,
                    0.767806556647643,
                    1.6177633164366498,
                    -0.44190227379608166,
                    1.9894977006505736,
                    -1.766672098586863,
                    0.6107692101772113,
                    1.20899181422538,
                    0.30814247439437487,
                    1.0833844844261626,
                    0.6434792374972446,
                    1.1352216189891473,
                    -0.4578553879178733,
                    -0.7186249925004584,
                    -1.0721267358105921,
                    1.225197225435479,
                    0.6621655619210165
                ],
                [
                    0.7669221391975395,
                    0.26751646129953205,
                    -0.8611615735615231,
                    -1.0900767677485803,
                    0.9367246316899195,
                    -1.1177827987472793,
                    0.01767462078633325,
                    0.10095623655646421,
                    0.3707018172011313,
                    1.6306477836559876,
                    -0.6499735174852661,
                    -0.20905396210636887,
                    -0.37615867608083575,
                    0.4493797293825276,
                    0.524964531436015,
                    -0.21578646841408503,
                    0.2563976827695685,
                    0.04350930207501349,
                    -0.1884723405807875,
                    1.0237518688216747
                ],
                [
                    1.0788193680124214,
                    -0.2376481683054276,
                    1.7831501711367466,
                    1.1823775415700062,
                    -0.4269587010766334,
                    -0.6079017940141312,
                    0.8864400371317055,
                    -0.7209263088389509,
                    -1.5301090092148377,
                    -0.38017829584063484,
                    1.0190026510919619,
                    -0.7193750308393941,
                    0.4608237866417926,
                    -0.05720701674254133,
                    1.0793027345217698,
                    1.8489924077943538,
                    1.0238589852679816,
                    0.7659226336189384,
                    0.8592073456180922,
                    0.9073372449438184
                ],
                [
                    1.5330737797948808,
                    0.346222559328841,
                    -0.9571104480942739,
                    -1.4419753674033524,
                    -0.7663038032104976,
                    0.9794707229207391,
                    0.3152044662249998,
                    0.7045109855199121,
                    1.421284104323942,
                    0.33150028585400393,
                    0.8081188543647252,
                    1.3646281077407982,
                    -0.10034796214619543,
                    0.28677296447433936,
                    -1.3211575960048945,
                    -1.492570189778902,
                    0.9186568345362012,
                    -0.3726876302780824,
                    -0.28055759997448804,
                    0.552548042078748
                ],
                [
                    -0.8742323623208422,
                    -0.8564800120713134,
                    0.6116820867765572,
                    0.10407920314648188,
                    0.07622375498030821,
                    -0.08653082769021828,
                    -0.40590223356201555,
                    -0.42248249701447255,
                    0.9402289112242204,
                    0.8732945509581302,
                    2.0023462544324655,
                    0.007967301741102788,
                    2.003286679707049,
                    -0.7715500382008446,
                    -0.03237548371619368,
                    0.9451370035147114,
                    1.1164383396448614,
                    -1.233963972785716,
                    0.4071083819314766,
                    0.8675098429648963
                ],
                [
                    -0.3157575730061086,
                    1.1876275968374923,
                    -0.23816677424377353,
                    0.37538153579166195,
                    -1.3380940991062107,
                    -1.5470488387539845,
                    -0.15628873241580923,
                    -0.6978089758381522,
                    -3.129700694928116,
                    -0.07224759379014214,
                    0.9243843475584959,
                    0.22484652461869448,
                    -0.10853787286829233,
                    0.17769519222347055,
                    1.471010121537803,
                    2.029613339614476,
                    0.688319927474983,
                    -0.19682050137498222,
                    1.6088024503312028,
                    0.35883273587569237
                ],
                [
                    0.2183326609942145,
                    -0.3749601518735663,
                    0.5666214427397814,
                    0.10021891820007839,
                    0.05722135101174741,
                    -0.18192308149172132,
                    -0.18907381475517165,
                    1.0309151127949945,
                    2.06450960870125,
                    0.28293159883569274,
                    0.45166713710804846,
                    1.0522343477139942,
                    -0.9086535841877962,
                    -0.3301655683126012,
                    -0.6845076728174753,
                    -0.05704462823648013,
                    -0.818303411706391,
                    -0.34455006973505464,
                    -0.4016151622967257,
                    0.681717392034396
                ],
                [
                    -0.8229736798300948,
                    0.7921341204630415,
                    -1.7345338308099394,
                    0.09630184777623704,
                    -0.564234594569312,
                    -0.9348019264919468,
                    0.4608175573293525,
                    -0.7291397738225792,
                    -1.0569750217703566,
                    -1.2751451238945635,
                    0.6832577320857267,
                    0.7705084338178199,
                    2.234799938940518,
                    2.287505529623982,
                    1.2007393980987493,
                    0.6847333256747379,
                    -0.0769304662159929,
                    0.3188266793263873,
                    -0.4613852814588806,
                    -1.3021625467013782
                ],
                [
                    -0.5899360838649288,
                    -0.2992779050472686,
                    1.385002074893046,
                    -0.7442556508151915,
                    1.5130668118715156,
                    -0.545555867793823,
                    -0.750399299689579,
                    0.02169073912375372,
                    -0.8704207350662221,
                    -1.37364522327386,
                    -1.9164771605545061,
                    -0.5116132358492261,
                    0.05066368982213742,
                    -0.24495630314176192,
                    -0.8934759726866229,
                    0.2716591697793628,
                    0.7087721831464752,
                    0.5301681014867867,
                    0.5446477148934448,
                    -1.9909043533578568
                ],
                [
                    0.08022906750627218,
                    0.23044884818474143,
                    0.13370892028016787,
                    -0.8676911887052733,
                    -0.5994223111198735,
                    0.9280331588632678,
                    -0.11972548380802346,
                    0.08460759918031366,
                    1.3119830401640058,
                    0.3462728244616431,
                    0.45950894675111265,
                    0.2760302099198867,
                    -0.6431893698009918,
                    0.07189210621222511,
                    0.6526285947147186,
                    -0.6379214569798884,
                    0.09610660113234556,
                    -0.5177351089384942,
                    -0.9007564514668728,
                    -1.8949734311794117
                ],
                [
                    0.2000466507138152,
                    -0.5557350302591376,
                    -0.1927025794323831,
                    -0.7162607994279746,
                    -0.4545778577206083,
                    0.5801387053603051,
                    0.7954448477624103,
                    -1.3669710113129452,
                    0.4437459404390449,
                    -0.07679178692278645,
                    -0.15454337472082844,
                    2.252746967513627,
                    0.02560397574721798,
                    0.07084718039324965,
                    -1.2118454017633087,
                    0.3094713178247903,
                    0.45695544911268143,
                    -0.12445385797670365,
                    -0.6662737134130384,
                    1.44763515029195
                ],
                [
                    0.45389511889053313,
                    -2.739994975733445,
                    -0.35958011204683094,
                    -0.677502612554651,
                    -0.7751570986640215,
                    -2.757331247968865,
                    -0.6078412298839325,
                    -2.247419439145832,
                    -0.2942343051371852,
                    0.7519671132194471,
                    0.8635172214567471,
                    0.11136024323851952,
                    -1.3367074523433453,
                    -1.3567093739210803,
                    0.37756882513445045,
                    -0.36837352979257215,
                    -1.6644596982981656,
                    0.8462178964754714,
                    1.4936110162666802,
                    0.7208575964187901
                ],
                [
                    -0.3866673919545335,
                    0.9512804008568462,
                    -1.4601682152427276,
                    0.4031622661369316,
                    0.45660523006700005,
                    1.7518328437527253,
                    -1.861080114230354,
                    1.9916014818529213,
                    0.4677385693878057,
                    -0.702032494062952,
                    -0.5185201289924085,
                    0.38681209249274734,
                    0.48694496130724596,
                    0.2589165115403626,
                    -0.7032882797231063,
                    -0.6593924378824316,
                    -0.5924034656922919,
                    -0.4305912624502752,
                    0.06628597522470273,
                    -0.08064889620568587
                ],
                [
                    -0.3475707558353088,
                    1.5444403804876967,
                    -0.10239898904526944,
                    2.0363876235709695,
                    0.6460742353541535,
                    0.49961294919441146,
                    0.9960997920299061,
                    1.6958661735303229,
                    -0.8375222459393123,
                    -1.9168044625679648,
                    0.1805197738539351,
                    1.025581884189883,
                    0.2456742462529662,
                    0.788158357616274,
                    1.8678507342163773,
                    0.37691310439749615,
                    0.13388859597384564,
                    -0.3845869903267352,
                    0.6174885304823707,
                    0.49812117766935576
                ],
                [
                    0.7686720690146127,
                    -2.3074405573986416,
                    -0.6230926806009135,
                    -0.08849842238106757,
                    -0.5127153864338246,
                    0.3971595788292331,
                    0.2048146116949554,
                    0.7297750937281294,
                    1.2006639899815559,
                    -0.5035431415787682,
                    0.7067002779517403,
                    0.4642847682542311,
                    -0.35338818697172475,
                    -1.4768851852931433,
                    -0.021302349055112652,
                    0.0773759327380686,
                    1.3619455944017553,
                    0.2517724157445129,
                    0.21055055484912477,
                    -0.07095204664505053
                ],
                [
                    -1.1703569969672603,
                    -0.33513882679135093,
                    -0.19159664091804976,
                    0.46729052818954486,
                    2.188720082787367,
                    -1.8940647979926717,
                    0.19758955525885102,
                    -1.45839987797625,
                    -0.671688327915345,
                    -0.41892042835211696,
                    0.4568423389656835,
                    2.3787656736250664,
                    0.6716843800301119,
                    0.14983670912027375,
                    0.4645121241478055,
                    0.6352073364021562,
                    0.35320577783128126,
                    -0.3879917675362288,
                    1.0655354339815704,
                    -0.38124940612733393
                ],
                [
                    0.7170717636838903,
                    1.0674227860332364,
                    -0.5614481234042539,
                    1.0888540352526614,
                    -0.8703354374389506,
                    0.3027773781048662,
                    0.5295992354133179,
                    -0.585314068288645,
                    0.18015015412348998,
                    -1.3075686193435117,
                    -0.020453624036674622,
                    0.790828553615693,
                    -0.6761004909535596,
                    0.9756444878861659,
                    0.13754251697072203,
                    -0.08256521181928321,
                    -0.7430691824845637,
                    2.1035118963585058,
                    -1.2065682773130064,
                    1.1716078583196319
                ],
                [
                    0.74979680912999,
                    -0.800286708260002,
                    0.20446680509623788,
                    0.6939181709379343,
                    -0.6349236824142999,
                    1.1466205578557922,
                    -1.7689031677096239,
                    1.3582870883526028,
                    -0.3794239475366254,
                    -1.596227058750782,
                    0.19183232379296117,
                    0.3014724477957298,
                    1.5311613919006253,
                    -0.6284590270495503,
                    -0.37478878082424993,
                    0.2716352659406524,
                    0.5034366580706795,
                    1.9664934511680252,
                    1.6150174017947259,
                    -0.7558452756908063
                ],
                [
                    -0.7031253674938066,
                    -1.1402860423233223,
                    1.3183830404688308,
                    0.24254558648216962,
                    -1.1435813544809026,
                    -0.5355100540615984,
                    0.5470974630116952,
                    -1.797150837056969,
                    -0.8724672091999464,
                    -0.13075789164401358,
                    -0.8649285872672606,
                    2.360677034121019,
                    -0.1544548742319748,
                    2.2406433837586905,
                    0.6351662816257754,
                    0.08456927776818772,
                    -0.5343905510243523,
                    -1.5217511148024323,
                    -0.5000084183443181,
                    0.8411506241146463
                ],
                [
                    1.17658972028938,
                    0.3418615172798789,
                    0.2764543311438945,
                    0.2213794500489594,
                    0.4663845785570649,
                    0.3633757562182424,
                    -0.6202683413612428,
                    0.6569448973224353,
                    -1.6888293702073203,
                    -0.6113436180210327,
                    1.2519611624849656,
                    -0.8531137640247132,
                    -0.6386974058738419,
                    -0.8934623382506987,
                    1.8860227601934731,
                    0.6718397718688259,
                    -0.8427819075765004,
                    -0.3638351895147038,
                    -1.399780123454786,
                    1.226218771160351
                ],
                [
                    -0.5784261928199332,
                    1.2600536741949555,
                    -0.5439170301290736,
                    -1.8237894597970858,
                    1.0660984637423851,
                    -1.6921466643247645,
                    0.2852323665579037,
                    -0.032011891952148604,
                    1.291235494748692,
                    -0.15703177146265135,
                    0.48075158833510595,
                    -0.20670733423528187,
                    2.2862877201357086,
                    -0.3621127825785504,
                    1.2069263207795808,
                    0.37175285836258753,
                    2.201902844561062,
                    -1.128281006870256,
                    -0.14669695878538433,
                    0.5039278070251876
                ],
                [
                    -1.3962528148241582,
                    1.1387742501236204,
                    -1.2311497374360179,
                    1.5887759052635073,
                    -0.48467179847340497,
                    -0.01831463188137105,
                    1.4665021539503338,
                    -0.856258222148116,
                    -1.2866363145948518,
                    -0.10312282947827188,
                    -1.0466523926787537,
                    -0.5394568351160915,
                    -0.5876462174365125,
                    1.251057442725549,
                    -0.13916984103467422,
                    0.45328433017816555,
                    -0.058894023951674083,
                    1.5483713196897477,
                    0.41258635649770503,
                    -0.23035970923990065
                ],
                [
                    -0.5974460081090954,
                    0.27693525191481455,
                    -1.1741654844301226,
                    -1.3405679693871841,
                    0.7028041777870032,
                    -0.8551212897240618,
                    0.6795266475792275,
                    -0.20401581635575317,
                    -1.733354908236723,
                    0.9233580686192665,
                    0.07063925056396626,
                    2.061221616538912,
                    1.0638028590608213,
                    1.2670802142108835,
                    1.3984112347123174,
                    1.313585949835348,
                    3.1547535158834026,
                    0.6070076547546656,
                    1.6844210983624401,
                    -0.7570408804567141
                ],
                [
                    -0.23097472708163747,
                    1.1445328216905135,
                    0.8265688598339735,
                    -1.811355678417093,
                    -0.6421696145317676,
                    0.04167635256884817,
                    1.9099534881299858,
                    0.5206682523410897,
                    1.0996544802481267,
                    -0.6786042784602265,
                    -1.0753675704873,
                    -0.6772740803784335,
                    0.523071459442978,
                    1.1211707789380325,
                    0.8283597137594729,
                    -1.0236270916464703,
                    -1.671526786756501,
                    -0.2992149529463408,
                    -0.652774382770271,
                    -0.13003354523024857
                ],
                [
                    -0.698310015539409,
                    0.3240034194615862,
                    -0.5882919009900174,
                    -1.0072624809306978,
                    0.13138146858538527,
                    -0.04732627563524552,
                    0.5183514636931523,
                    2.1911884971945113,
                    -1.3818960989046682,
                    -0.21597414238526522,
                    -0.7001207473644447,
                    1.5737419841564053,
                    -0.18952983356972566,
                    1.2564678661668809,
                    0.6941330854952438,
                    0.21318902437596812,
                    1.641450818408847,
                    0.8080072132637603,
                    -0.23759617727428872,
                    0.6282611083697666
                ],
                [
                    -1.2225856691677537,
                    -1.2828073603500552,
                    1.2962862009584373,
                    0.8649044906148294,
                    0.10911811141810686,
                    2.4375844093282932,
                    0.7160479318716231,
                    -0.3981223046488596,
                    0.24170451163263845,
                    -1.9884355277952475,
                    2.4937153625164337,
                    -1.1490670681854849,
                    -1.0655657823921278,
                    -1.3055364474494602,
                    -1.062906988954616,
                    -0.1079496573296521,
                    0.48208441202255964,
                    1.1193858968204453,
                    -0.4425924879011287,
                    -0.8896868827596344
                ],
                [
                    0.7114633224607438,
                    0.5254318160862993,
                    -0.7633209310534647,
                    0.16119795782102,
                    -1.1342274886383303,
                    0.054440593049774506,
                    0.9396016677467484,
                    1.2479759484919921,
                    0.8651354101786318,
                    -0.6116022363040459,
                    -1.164796896745182,
                    -0.7646075568459927,
                    -0.4193282281062524,
                    -0.40845616893434317,
                    -0.3738088264246033,
                    -1.1879031218278235,
                    -1.1275833805063966,
                    0.7910622212441942,
                    1.461702150782221,
                    0.519918318547398
                ],
                [
                    -1.2590022082104613,
                    0.21084784453995786,
                    0.38636075808044923,
                    0.35900339565473943,
                    0.850235587962508,
                    -0.6265991888714633,
                    -1.048427804479218,
                    -1.4122646023979326,
                    -0.577286376122187,
                    1.6182549675386024,
                    1.4394391865489626,
                    -0.5928722052175632,
                    0.017947227988441245,
                    0.3813296949341467,
                    -1.0629071414069249,
                    -0.7390225829835206,
                    -1.7569152013638512,
                    -0.438648031936287,
                    0.8420988450406744,
                    -0.19515777544564644
                ],
                [
                    0.1278927090269998,
                    -0.6390692150795575,
                    -2.5513483653648126,
                    -0.021030043191103565,
                    -0.36904418027413083,
                    -1.4731074607404961,
                    -2.411400939950368,
                    -0.2172488147521171,
                    0.3522629476617086,
                    1.1144980114932983,
                    -0.9956905109194506,
                    0.22688957575650223,
                    -0.23199629113877726,
                    -1.171071362979657,
                    -0.4094169402347498,
                    -0.14996754375706525,
                    0.024035518425907707,
                    0.02345878204650204,
                    -1.1897028972068233,
                    -0.042111963676008356
                ],
                [
                    1.4128050405773827,
                    0.28633336585368413,
                    0.9106693214441441,
                    1.6118365150234621,
                    1.2126882577376823,
                    1.2547769321236788,
                    -0.737567996602121,
                    0.027217569254738356,
                    -0.09478907082367954,
                    1.7254705105093693,
                    -1.0064766776883067,
                    -0.20001994936115833,
                    -0.8458847020211834,
                    1.1408303985434802,
                    0.16070156699043797,
                    -1.1187601621337049,
                    -0.4036708523035372,
                    -0.6856345635084221,
                    -0.7894959074890948,
                    1.69494943672591
                ],
                [
                    0.06639053916784225,
                    -0.35378759953338407,
                    0.14263021495859166,
                    0.2946336386249519,
                    -0.9249136536869693,
                    0.1012767930694716,
                    1.851577782847696,
                    0.11296767245700078,
                    -0.457408077680936,
                    1.1142777063887428,
                    2.2814160710874725,
                    -0.47035592853276365,
                    -1.0362028442741076,
                    -0.7611137214627339,
                    0.7561419701147911,
                    0.20879687198168242,
                    1.1960153358423897,
                    0.32105558724289207,
                    0.4432610359144618,
                    0.7721686003962994
                ],
                [
                    0.30440110210046084,
                    1.1725529222156652,
                    -0.38866972909241543,
                    0.22269799319445766,
                    1.9562908399171368,
                    0.18014557980494816,
                    0.8680495730825739,
                    -1.125368560480985,
                    -0.15880146793765265,
                    0.39730344423808234,
                    3.1545819982292778,
                    0.5601618028926295,
                    -0.19233515661351808,
                    0.9267034358785412,
                    -0.18323095189152083,
                    1.7593127114126446,
                    -2.557522466356113,
                    -0.8015853963980408,
                    1.5071036904905992,
                    -1.2277474508004693
                ],
                [
                    0.9835578599716439,
                    -0.43449565494405284,
                    1.5455961560868323,
                    -0.4021149837580605,
                    -0.27309414557131456,
                    -1.3546977273962115,
                    -0.18376904294431592,
                    0.9844282580818552,
                    -0.09745941020483052,
                    -0.006117669567628112,
                    -0.023590542949083408,
                    1.3492466939344312,
                    2.221800323924088,
                    2.1020185923768593,
                    2.333823225107828,
                    1.1895341226634468,
                    -1.4248114444403621,
                    0.012385772154255126,
                    -0.8892305748788942,
                    0.09472157591200463
                ],
                [
                    -1.3583922676748459,
                    -0.9217368590035409,
                    0.813503986949842,
                    -0.061840639267579905,
                    1.1143894688003542,
                    -1.5273908461156875,
                    -0.5763897222139025,
                    -0.2965233594312783,
                    0.5202959637964647,
                    1.1954113380710096,
                    -0.254277489129136,
                    -0.8393985417936404,
                    -0.6594274968985712,
                    0.33069724090690905,
                    -1.4121060086062107,
                    0.3087515247834936,
                    0.34788766354044837,
                    1.4793694622067397,
                    -1.248032424732374,
                    -1.7602089731221982
                ],
                [
                    -0.1052726838593368,
                    -0.9108241163962683,
                    0.6398055390127723,
                    -0.5278111182220705,
                    -0.735673647405297,
                    -0.04424398647371194,
                    -0.8469068722387464,
                    1.1683007035334418,
                    0.03186045170470499,
                    -0.5259530791182099,
                    -0.4698265396714071,
                    -0.19060728481750736,
                    -0.7185300006321736,
                    0.6638922117032006,
                    0.1702754593888782,
                    0.28331520145720923,
                    -0.5491859123783216,
                    -0.16088273347627524,
                    -0.5845027039493066,
                    -0.20268004944373658
                ],
                [
                    1.0473115916491524,
                    -1.254114724257483,
                    -0.41226156888711857,
                    -0.6561873186459433,
                    -0.13979081135564483,
                    0.3800566636690207,
                    0.06129292391143074,
                    -1.5810522391040789,
                    0.4578397990107066,
                    1.9024709556134691,
                    1.2824593828267714,
                    0.835063381659064,
                    0.6246424367157153,
                    0.6404293989443057,
                    -0.09433474220701817,
                    -0.6185090319598188,
                    -0.547403750474561,
                    0.705029653224689,
                    1.5675318549108919,
                    1.0918148734016468
                ],
                [
                    -0.6561074684684789,
                    -0.2796884950903432,
                    -0.3334476709022766,
                    0.5773290066235831,
                    0.35514107559949,
                    2.842917374257139,
                    -1.6725918248471783,
                    -0.29228350975648487,
                    1.8023885194461025,
                    -1.4339458023232916,
                    0.2162521061750975,
                    1.5624972990732204,
                    0.0624261185593785,
                    0.6760148558678786,
                    -1.8392078624707306,
                    -0.8527331641951625,
                    0.3941053208190058,
                    -1.110250388242787,
                    1.5921727045961824,
                    -0.9067385747072005
                ],
                [
                    0.8622611663450501,
                    -0.1022880526167566,
                    0.6182226473349857,
                    2.145834799242045,
                    1.2498692237823632,
                    -0.23817034202757462,
                    0.2649729667247951,
                    -0.37343777869159145,
                    -0.2155011436039718,
                    -1.413136815531303,
                    -0.7067129734111055,
                    1.1373513500607815,
                    -0.4807278729470821,
                    0.4412834640221947,
                    0.2799007807288096,
                    -1.335477094889428,
                    -1.0035802951962889,
                    1.2253903495934166,
                    -0.3205444508687601,
                    1.1042491428799133
                ],
                [
                    0.8362961887418364,
                    0.9361947381139305,
                    1.8911428121555105,
                    -0.03937938561983676,
                    -0.5696879323650631,
                    -0.6762252646009729,
                    -0.2701867158310685,
                    1.6077127485160978,
                    0.07226653237933549,
                    0.4607480081022348,
                    -1.1340871299061495,
                    0.9090364099270081,
                    1.4850549668134931,
                    -0.82112065939709,
                    -1.3806956754526287,
                    1.8380650652063963,
                    -0.42160025594004963,
                    -0.39049886232554515,
                    0.9187957175764583,
                    0.40016659729381054
                ],
                [
                    0.8711764446935347,
                    2.0393253028052913,
                    0.12684356800499988,
                    -0.5331310407707557,
                    -1.125198722602604,
                    -1.94720297359342,
                    0.2747055631462321,
                    0.9732921085883641,
                    -0.36356846055910697,
                    -0.43804927990122483,
                    -1.7486839884586507,
                    1.0790749294071502,
                    -0.5717257453074769,
                    -0.1251254872636435,
                    -0.510220672734384,
                    -0.8542588131454117,
                    0.36224324964940124,
                    -0.4430666215004514,
                    0.1864399560177158,
                    0.4625119598342411
                ],
                [
                    -0.7805051024941033,
                    1.4731166892917864,
                    -1.0861205575265207,
                    0.2894064895792603,
                    1.9079339779530244,
                    -1.4468536260098295,
                    1.5092548610176018,
                    -0.9488997615841683,
                    1.5139726802635707,
                    1.256105253140987,
                    0.5774254090930777,
                    -0.03738337945435214,
                    -0.6044954345311518,
                    -0.8419638857115166,
                    0.07070165955850552,
                    1.434450516445328,
                    1.7096442779510814,
                    -1.704086355497189,
                    0.2484008343367798,
                    0.9094312572066253
                ],
                [
                    0.3460490188774024,
                    -0.5913155702025759,
                    0.34812566773062825,
                    -1.3191218918993415,
                    -0.7591651274212327,
                    -0.5232358253439059,
                    1.1256462353242824,
                    -0.7541432692222753,
                    0.8630250411216541,
                    -0.8869275511698371,
                    0.6440572123652646,
                    0.3943280490312406,
                    -0.4495033749647165,
                    0.4679588851727788,
                    -1.203983916479586,
                    1.0388281400482857,
                    2.584103568446784,
                    0.2918853987366095,
                    -0.7952251631383832,
                    1.69523862954595
                ],
                [
                    -1.1131861395941507,
                    -0.7129437983817851,
                    -1.2573551366738593,
                    -0.25739579888907754,
                    -1.0738869083426914,
                    0.34716556035056767,
                    -0.360581314488812,
                    -0.9477067504629055,
                    1.7097521465399996,
                    -0.3505582049778471,
                    -0.5069804775017545,
                    -1.2916815832147204,
                    0.3031746429763067,
                    -1.4252485011967082,
                    -0.057701192720324146,
                    0.6869316244423074,
                    0.3874216433195784,
                    -0.11583069430401019,
                    -0.373699011946564,
                    -0.19160803280366204
                ],
                [
                    -0.8104834780533177,
                    0.0369528288947849,
                    0.4247613624950286,
                    -1.1411198834859066,
                    0.7717406299130772,
                    -0.32358167136651245,
                    -1.192363497087131,
                    0.18887327458233494,
                    -1.1496370544835555,
                    0.9045008526672104,
                    0.3620381340366437,
                    1.0237641131768096,
                    0.25503217834452646,
                    0.11182415314705323,
                    -0.267049430481417,
                    0.5504690595121701,
                    -2.025337164059593,
                    0.7552765610295487,
                    0.24903905714171287,
                    1.1694955466766268
                ],
                [
                    -0.1005384766513115,
                    0.767693496089253,
                    0.5353838157588267,
                    1.1293909930975374,
                    -1.2734191370783743,
                    0.9185442052698386,
                    1.1942649629808695,
                    -1.0749377226720889,
                    -0.9484641158932465,
                    -1.2663166561189598,
                    -0.8968132719333438,
                    0.38630412726344293,
                    0.8033817006515839,
                    -0.3474361026620264,
                    0.06554806980798762,
                    -0.1797237929491357,
                    1.6026996742403954,
                    3.0807031075926257,
                    0.8919835304385942,
                    -0.6486120913792527
                ],
                [
                    -0.3820440970419807,
                    -1.3692223565607495,
                    -0.300742347224657,
                    -0.6612039704639024,
                    1.4557476259480577,
                    1.1504715340669944,
                    -1.8469466555267318,
                    -1.9815034883897131,
                    -2.158438355740122,
                    -1.2657063476230983,
                    0.5666303936440924,
                    0.9884528468680829,
                    1.1010056153173737,
                    -1.8558879219254751,
                    -0.6997788844685175,
                    -0.5127775379723095,
                    1.1139903325824785,
                    -1.863241205488636,
                    1.2731582309784082,
                    -0.16070143500057016
                ],
                [
                    1.9959523103403454,
                    -0.05827552612344572,
                    -0.7785648032717084,
                    -1.056694378877985,
                    0.1630653777003489,
                    -0.8090770946345671,
                    -0.3720922720659901,
                    -0.6758100510503754,
                    1.1844930899485657,
                    0.6651613647217802,
                    -0.1718758073275904,
                    0.13152615269298268,
                    0.20144491593034985,
                    -0.6938247895881867,
                    -0.45066227061871234,
                    0.5161842827867298,
                    2.3615140225304025,
                    0.8389654805474419,
                    -0.28846771299753776,
                    2.287006908962169
                ],
                [
                    1.7768098769196987,
                    -1.2846947001466338,
                    -1.2610053678656723,
                    0.9110158832897264,
                    0.663425678830784,
                    2.3935745191896185,
                    -0.58911798401932,
                    -0.9175693651148584,
                    0.2559905809948723,
                    -0.2077081930229778,
                    -0.4719789614121231,
                    -0.11112034308321213,
                    1.0160874602528225,
                    0.5979195281060069,
                    -0.398042222615816,
                    -0.5034046770301656,
                    1.002720216596936,
                    -0.09703202793869282,
                    0.8487819693712717,
                    -0.353957940227563
                ],
                [
                    -0.9613352388774861,
                    1.1696011450091204,
                    0.23506467704187953,
                    -0.09499723705670217,
                    -1.6262820609495887,
                    0.4725549143859332,
                    -1.8826425085213683,
                    0.7716259531582349,
                    -0.9652534877928969,
                    0.7925785982661863,
                    1.6776280675195268,
                    0.28521826318041027,
                    0.06904515588767583,
                    1.8487896845364942,
                    0.9088077096613942,
                    -0.8252561095073874,
                    2.2483234869308237,
                    -1.9406788201036775,
                    -0.5636680632274905,
                    0.1737047921603224
                ],
                [
                    -0.08007844857692872,
                    -0.6532339877786677,
                    -0.6494852130853185,
                    0.2668696871100196,
                    -1.0927523652017033,
                    0.15146296050681957,
                    -0.39822359329442664,
                    -1.2096389138784427,
                    0.4417722227155762,
                    0.6558471603199819,
                    -0.7383663224911543,
                    0.6857068574217786,
                    -0.3467430083556813,
                    1.272881286322389,
                    -0.0013630597863285067,
                    -1.390550737906158,
                    1.3624899929030068,
                    0.7711852418059569,
                    1.2022945036594601,
                    -0.2598124481729867
                ],
                [
                    1.149334021887884,
                    -0.13161743387806105,
                    -0.778065723789422,
                    -0.02798069138253874,
                    -0.03845533450270083,
                    0.07907557103505708,
                    2.165685603312459,
                    1.5927061162311897,
                    0.03973701107686834,
                    2.3237436644980916,
                    -0.2543890975213563,
                    0.9868238283737071,
                    0.9152063009778206,
                    0.6662546165709937,
                    1.13159157124827,
                    -0.749654157868382,
                    -1.135965842074339,
                    -1.9756475286280852,
                    0.511311335482746,
                    -0.8750585850824911
                ],
                [
                    -0.25767508891476787,
                    1.356880344957634,
                    0.3845270606237701,
                    1.3278540044014935,
                    0.7870763270986446,
                    0.7997622764686128,
                    -1.5965280369682533,
                    -0.38177342381884366,
                    0.12630302623882114,
                    0.07799639155951772,
                    -0.5531796197631963,
                    0.01654580641374586,
                    -0.312473309744323,
                    2.598598975136213,
                    0.2756083330492423,
                    0.4633498645405347,
                    -0.9354044285995399,
                    0.3927022439174806,
                    0.771481646565514,
                    -0.502132769734743
                ],
                [
                    0.3379002422928536,
                    -0.6225248900644784,
                    -0.313739947239315,
                    1.0420002654164144,
                    2.545808941430416,
                    -0.31802212924610784,
                    2.272967195975148,
                    -0.36603388795576475,
                    -0.2229635583113478,
                    0.3657355664864574,
                    0.5477364850304117,
                    1.9253883773965492,
                    1.1903656797930902,
                    0.46409277077331745,
                    -1.6201779758557369,
                    -1.681830709340489,
                    -0.3973913324696033,
                    -1.012427455055058,
                    2.2409384105211037,
                    -0.8559702852330321
                ],
                [
                    -0.9538950482915829,
                    -1.0834722049559165,
                    -0.9265563976619685,
                    0.20334741627208275,
                    -0.40099485206769997,
                    -0.6564592274337097,
                    1.1431726871352441,
                    -2.363802473725202,
                    1.6794030161682616,
                    -0.326281860041794,
                    -0.6900214594309819,
                    0.6282900277533994,
                    0.28773779257590437,
                    -1.2086321055108695,
                    0.7872879891860103,
                    -0.274333798634972,
                    0.23298844332731738,
                    1.2560222677599966,
                    -0.13118479429515215,
                    0.3877041708124433
                ],
                [
                    -1.1507338005447942,
                    -0.10495271034993695,
                    0.6046521060788964,
                    -0.009897047026610322,
                    1.7806895345515663,
                    2.6277462680184085,
                    -0.300541602214631,
                    0.0970143407974968,
                    -1.0613874636881355,
                    -0.40381896237768816,
                    0.7946639726286722,
                    -0.7078850205262945,
                    -0.7325152009335568,
                    1.6474697402006895,
                    -1.3796153706727519,
                    -1.103025767746155,
                    -0.32628953663511384,
                    0.49631120883193536,
                    0.6173823036775656,
                    -0.50758642842595
                ],
                [
                    0.5254787720844227,
                    -1.4671843040923969,
                    -0.8941472900777802,
                    -0.21561374982556106,
                    -0.5253786765944056,
                    1.73053869313706,
                    1.1234614059937185,
                    -0.7841616742792055,
                    -0.45622882050938834,
                    -0.3769778428229766,
                    0.18605480597969534,
                    -0.050403244908667384,
                    -0.8783344331800319,
                    0.3506122883552409,
                    0.40620578256862977,
                    0.41812477593712144,
                    0.46989182406627483,
                    -0.6002455354402593,
                    1.815421210455252,
                    -1.5337021419078203
                ],
                [
                    -1.8086946564433786,
                    2.329814077199934,
                    -1.6666366542599351,
                    0.31536313674073385,
                    -1.6315399910645498,
                    -0.10473694990185602,
                    -0.7413467992943087,
                    -0.31932933746351155,
                    -0.20516758198611615,
                    0.31086505468949394,
                    0.6969279754938867,
                    -0.6382092426511412,
                    -1.6236173814059727,
                    0.6890724677297309,
                    -0.5464612795217713,
                    -0.3017746308365642,
                    0.4895957639823871,
                    -0.6020736862686151,
                    0.9046465694437493,
                    -1.108423613245203
                ],
                [
                    0.15769325282799518,
                    -0.04622040587417999,
                    2.758357834281239,
                    0.31240447507263225,
                    -0.323964940995368,
                    0.8738158718129091,
                    -0.23886309178186366,
                    -1.0687069928831396,
                    -0.5618574499774089,
                    -1.5889572075951253,
                    2.4871441159798184,
                    1.168164320252891,
                    -0.4386737063878089,
                    1.1930795280113096,
                    -0.8489870717801435,
                    0.42392447332014904,
                    0.66375772597358,
                    -2.011976163751767,
                    0.7882852688915593,
                    -0.12026110361367456
                ],
                [
                    -0.5952653718869086,
                    -0.5679567226809358,
                    -0.4741990590615363,
                    1.9346791111770572,
                    -0.5691383019536554,
                    0.36071407029648694,
                    0.0049375762859602025,
                    -0.7879938034604345,
                    -0.28948293363617905,
                    -0.39410712951779336,
                    -0.7940246364108844,
                    0.987639382813554,
                    -0.4097828855132222,
                    0.46852844689099166,
                    2.5376380266218597,
                    0.5764408437571327,
                    -1.727204620786001,
                    -0.08313367692391355,
                    0.17878145005696502,
                    -0.030821048795408434
                ],
                [
                    -0.06398986720739912,
                    0.08375332877316644,
                    -0.21016028937921957,
                    -0.36481150959801034,
                    0.32997015585955797,
                    0.7867677135676215,
                    0.9778769472742359,
                    -2.2848198518290697,
                    0.8316962738372933,
                    0.07388397240543969,
                    0.25406110105133733,
                    1.6691657459404792,
                    -0.6991008262366523,
                    -0.2295090845617101,
                    -1.9697778434122457,
                    0.6251573866294374,
                    -1.2178441947277854,
                    1.6039169410090335,
                    -1.251056673965115,
                    -0.7393939392271701
                ],
                [
                    -0.3882664019822878,
                    -0.962639455872541,
                    0.8371417097686288,
                    -1.0439473210320163,
                    1.0202725396543355,
                    0.7724544787495021,
                    0.17874088159493226,
                    -0.08531169229409764,
                    -0.16817886748445868,
                    -0.09431019949366021,
                    1.3706649425544353,
                    -0.47406567107979936,
                    -1.334488577039344,
                    -0.4515414937819931,
                    1.0711085306073096,
                    0.8723911778450948,
                    0.2714491915447088,
                    0.46803828787700574,
                    0.07645274613605466,
                    0.3438699442645095
                ],
                [
                    0.03277841809762882,
                    -1.8360237141494005,
                    -1.0990538916008246,
                    0.8257861889635599,
                    -0.15575073953108678,
                    0.7425970740859632,
                    0.6993156320614314,
                    -0.8294241736889326,
                    0.9771624504487308,
                    -0.7866960932050956,
                    0.4472894565556307,
                    0.008586002827711482,
                    0.4351653582110617,
                    0.07666064651161403,
                    -1.9943279501614062,
                    -0.09589060631300535,
                    0.3006644346340252,
                    -1.3761593985167204,
                    0.1995438731350155,
                    1.2098081685553965
                ],
                [
                    -0.1813213913810878,
                    -0.24920097992160103,
                    -0.09656074974498591,
                    -2.0924264252038225,
                    0.9153539459911798,
                    0.5779695303430646,
                    0.38043474451668696,
                    -0.8946306296170424,
                    -1.2241056557803205,
                    -0.4705237372186139,
                    1.4672785907331216,
                    1.1959581570225761,
                    1.0560657908916458,
                    -1.1577102594159774,
                    -0.1395605845730194,
                    0.355079761048428,
                    0.5270023533967795,
                    1.3474810802473587,
                    1.3993967393677587,
                    0.9950471464702899
                ],
                [
                    1.7137298906223333,
                    0.2852003605276875,
                    -0.6197285737590529,
                    -0.11053721868881469,
                    -0.44718948918590085,
                    0.6117463450470465,
                    -1.196826781969878,
                    -1.0155988280453945,
                    -1.130012935439404,
                    0.8190325889862673,
                    1.8209784181503073,
                    1.4646580439576755,
                    0.07249574587190519,
                    0.18331872327563528,
                    0.3424577068758192,
                    -1.2624150292177054,
                    0.4551024815936103,
                    -0.6763101702407401,
                    -0.017440873786326038,
                    1.193776121014068
                ],
                [
                    -0.2550025686183911,
                    -0.29064467121317944,
                    -0.4531118780380424,
                    -0.31661789648976485,
                    0.057727760214084,
                    1.212333478426398,
                    0.8550864614643194,
                    0.05317261508394939,
                    0.4697981636599983,
                    -1.280156082101879,
                    0.3106913797246706,
                    -1.0058321842106452,
                    -0.2819886443601826,
                    1.3718238465136599,
                    0.9983814442787646,
                    -0.9169331119414814,
                    -0.9410655794767764,
                    -1.9241797706675643,
                    -1.6762858565187615,
                    0.2742667447185508
                ],
                [
                    -0.5345731437328033,
                    0.8858278562553146,
                    -0.34577434497081333,
                    0.6430757521445885,
                    2.369198038842093,
                    0.9239314511002391,
                    -0.13804447883697707,
                    -0.6979294616124219,
                    -0.07083991912541497,
                    0.08941995372893156,
                    0.32686933195593715,
                    -1.4226111235812473,
                    1.543306715526298,
                    1.6011056088648254,
                    -0.6744353316458758,
                    1.7527906918207912,
                    -0.20187865435583852,
                    1.137332458091639,
                    0.3799559278781245,
                    1.70803081154777
                ],
                [
                    -1.2612596514953407,
                    -2.149569826528049,
                    0.6705659209236668,
                    1.0121467827010278,
                    0.3179855713548841,
                    -0.25765638549662595,
                    -0.9400022034902923,
                    1.272239580948372,
                    -0.9972026435425586,
                    0.23914417743856417,
                    1.028351797197424,
                    0.3100257066905356,
                    0.36590176664022,
                    0.4881088605095191,
                    -0.9194014151516778,
                    0.3064272917315321,
                    0.38757358708257683,
                    0.3081185224033013,
                    1.0072274406428328,
                    0.17259153011544495
                ],
                [
                    0.7386530376104605,
                    -1.4913294832534711,
                    1.0498237927943823,
                    0.2581238952930235,
                    0.35273512100640225,
                    0.5030242128961897,
                    -1.0339716637382816,
                    -0.2012843935111593,
                    -0.7820507289053691,
                    -0.5528861428720098,
                    0.6065848459499652,
                    -0.536261663798635,
                    2.2794863181201803,
                    0.6451754112307807,
                    0.7257615376689079,
                    -0.7657756127354959,
                    -0.905251937529217,
                    -0.43857269932003273,
                    0.06018153114308571,
                    0.6979910633800898
                ],
                [
                    0.1437766863319148,
                    0.36801203329339743,
                    0.5484478820472476,
                    -0.944979716927382,
                    -0.28381670686530724,
                    -0.3605486826460607,
                    1.13841257396129,
                    0.6325700181782351,
                    0.5178433823962676,
                    -0.3264953329299109,
                    -0.8155971678036714,
                    0.09258437555978549,
                    -0.8108779636404713,
                    -1.7927883409384104,
                    0.45506486776620225,
                    1.106466111782116,
                    0.009851967400661485,
                    -0.051090520277691315,
                    0.5607245415479045,
                    0.06204505690176347
                ],
                [
                    1.5240620047706228,
                    -0.04722509579863478,
                    1.2496255603730166,
                    -0.14166325908033056,
                    -0.9609106715536068,
                    -0.16679536999309233,
                    0.6459164976039912,
                    0.311712933883401,
                    -1.4575839669719621,
                    0.21148744348316917,
                    1.4760538663210239,
                    -1.9067886751041998,
                    -1.4314378316880734,
                    -1.53395358894884,
                    -0.4597115248249491,
                    0.5462549055552997,
                    -1.954122131322338,
                    0.8671468202515394,
                    -1.492196481630146,
                    -0.09462455265253158
                ],
                [
                    -1.1105372898139159,
                    -2.377742419137191,
                    -1.2142400768682056,
                    -0.9449867679164389,
                    -0.20681383646487583,
                    -1.8538249626691519,
                    1.2604143871730233,
                    -1.5617166241332405,
                    -1.3881927296179952,
                    0.31689805024822904,
                    -1.299314571242091,
                    0.8178934182614889,
                    0.5749994520241444,
                    0.8067150530117144,
                    0.08279997787797559,
                    0.16160576743498803,
                    -0.12283125446350165,
                    -0.26533791955206953,
                    0.13571799209601976,
                    0.5020072343420978
                ],
                [
                    0.8939097156854208,
                    1.3219121872089084,
                    -1.5545142525527302,
                    0.49732373160965454,
                    -0.7716075947619474,
                    1.1306651064301065,
                    0.9847249714315581,
                    1.3008632341009652,
                    0.12437132043694596,
                    -0.5187862229480057,
                    -0.07648226081859683,
                    0.8571270397442011,
                    -1.6081104522364507,
                    -0.12263617640946314,
                    0.9262601245539153,
                    1.1357814310291228,
                    -1.3432176864618666,
                    0.319830264101463,
                    0.042447700374553955,
                    1.8786028989739672
                ],
                [
                    0.22842721245576536,
                    0.19034363170782645,
                    -1.3508757786970573,
                    0.1612942143995146,
                    -0.640097616760406,
                    0.34227590467371727,
                    -0.01871018774735666,
                    -1.7266796729345484,
                    -0.7244116615857082,
                    -1.6615443943061419,
                    1.7254166861806641,
                    -0.3367298222551673,
                    1.0794934851075162,
                    -0.5390218039272509,
                    0.4787073142540046,
                    -0.11816244481804167,
                    -1.6063013374118058,
                    -0.5590864261460029,
                    -3.052641366301067,
                    -0.7916629713314279
                ],
                [
                    1.5602179421176572,
                    -2.4520948903884854,
                    -0.7102085677354455,
                    -0.20452235069505978,
                    -1.4045376837703234,
                    0.9894519236697286,
                    1.3473743776709965,
                    1.7172203851506407,
                    0.4973534000255403,
                    0.3545555253050039,
                    0.8100277269994738,
                    -0.8969610012694992,
                    -0.6563797999026973,
                    0.37113171752283236,
                    -1.6135502404901658,
                    -0.56353851104695,
                    0.03949454185838062,
                    0.38484224126631844,
                    1.2346345635204854,
                    -0.4715156759542508
                ],
                [
                    0.06551262660399919,
                    -0.5966019442971849,
                    -0.25102466727770334,
                    0.1574572333308856,
                    -1.1487441555204865,
                    -0.4226417878964032,
                    -0.32733479508677793,
                    -0.7918481690043699,
                    0.442337609112821,
                    -1.0703928573089723,
                    -0.5524927278499538,
                    0.12242635530016562,
                    -0.3166791581488361,
                    0.6782432014102637,
                    -0.30574779814875996,
                    0.5618253520935069,
                    2.799370805334422,
                    -0.08370250976904597,
                    -0.33513196975142256,
                    -0.18663066926688457
                ],
                [
                    -0.10742952265650434,
                    0.14764937926680807,
                    -0.7777716774374581,
                    1.1494910922079928,
                    0.2654216405604504,
                    0.31791161804241724,
                    0.8464335307192407,
                    -1.1403340168532174,
                    0.8143713025526078,
                    0.1602706254312371,
                    0.5611013745845792,
                    -1.6724012728368625,
                    0.07279546303896944,
                    -1.190628995475891,
                    -0.03896332401688411,
                    -0.10750747786755108,
                    0.0297428484380276,
                    2.4022459040549227,
                    0.6129456638803871,
                    0.6404144062489574
                ],
                [
                    -0.2654005711560071,
                    -1.2063361145266673,
                    -0.5089949809582258,
                    -0.5321848625967723,
                    -0.5442490150015533,
                    0.8402381704000079,
                    -0.32564884848968617,
                    0.10100384608102735,
                    0.16827973797389673,
                    -0.11307312385856426,
                    0.11247400748267834,
                    -1.0230707102027112,
                    -1.8997339644242934,
                    -0.41453975008960253,
                    -1.4839088194020986,
                    0.7353525046088244,
                    -0.00531466315135409,
                    1.2140959973663263,
                    0.6547923676761225,
                    0.6732190747602255
                ],
                [
                    -0.5216027294878586,
                    1.8814935755922124,
                    -0.24097580865722953,
                    0.090418649801838,
                    3.444926328559772,
                    -0.07642379873427776,
                    1.8522616031367,
                    -0.9310031324520532,
                    -0.17734103240166932,
                    0.24334700463794845,
                    0.7974318182239518,
                    -0.7116074155615744,
                    -1.7415608134315603,
                    1.231232198068989,
                    0.29441466632216745,
                    -0.0008596553306776843,
                    0.406407102847437,
                    0.8617270371562461,
                    1.6005332093648306,
                    -1.2438242717099226
                ],
                [
                    -0.8502636747625345,
                    1.5067190621340913,
                    0.718543977181106,
                    -1.1149639665381794,
                    1.266824854441043,
                    2.6186103687476536,
                    0.8710267350053615,
                    -0.661486231267112,
                    1.5198602568513462,
                    -1.98895071327914,
                    -0.7845584093301099,
                    -0.1965510910148083,
                    -0.8836026793300109,
                    -1.1337941650353234,
                    0.27726885553025915,
                    -2.522715807891567,
                    -2.1234617540552754,
                    -0.7973832692704241,
                    2.5558543862364127,
                    -1.6785723060778055
                ],
                [
                    0.16548333265632634,
                    -1.4183486854822782,
                    -0.7965945885779127,
                    1.810689509144799,
                    1.3630852744964472,
                    0.8603400674019063,
                    1.4696876761542208,
                    0.535665525901418,
                    -0.8566618990240271,
                    -0.19290374344302733,
                    0.8227334366856851,
                    0.7549921660136272,
                    -0.8497837888851965,
                    -0.1766495662925098,
                    -0.012020946293016898,
                    0.5451241376286262,
                    -1.5397338978717703,
                    0.47976456725410555,
                    1.6235209325793734,
                    1.1765363684446977
                ],
                [
                    -1.203795358294066,
                    -0.24314844527330898,
                    -2.4370572351729907,
                    0.6276478143290752,
                    -0.4984164457685386,
                    1.2060566243207258,
                    1.6849447970474958,
                    0.7184847941154845,
                    2.5619674017230074,
                    -0.5174806024629125,
                    1.4039663447200699,
                    -1.8219402193413898,
                    0.6059932420765748,
                    1.8266755665323546,
                    -0.791579547191178,
                    -0.04706550864249267,
                    -1.290973115198475,
                    0.9088174202118016,
                    -0.49365475604312997,
                    -0.07426950740745215
                ],
                [
                    0.5853265365090217,
                    0.5653502293446231,
                    -2.8283277181512396,
                    1.5639510733925301,
                    2.41475876695583,
                    2.5220298959925467,
                    -0.06264923606488679,
                    0.20889315818822402,
                    -0.47193800489272025,
                    -0.9422730028342392,
                    1.8670630631498828,
                    -0.6594537887970443,
                    1.6264523108073907,
                    2.0175115547620877,
                    -0.8573701115905092,
                    1.0224703504424886,
                    -0.04125630024199139,
                    1.0851696981979768,
                    1.5172612685655051,
                    -0.07370736924811463
                ],
                [
                    1.0702442983739284,
                    -1.755425973479799,
                    -1.6626405857049293,
                    -0.09126248888515784,
                    0.9226287398670071,
                    2.053744659180394,
                    0.4035811493008182,
                    0.5984871111114534,
                    0.6688911528829735,
                    -0.28106148704706024,
                    2.1558642028830692,
                    -1.1765991988271296,
                    -0.44433674100567117,
                    1.234408782398712,
                    -0.09619318850565377,
                    -1.6068149274356018,
                    -0.24182309759226545,
                    0.6130496478016122,
                    0.8223627180139763,
                    -1.7337110024069353
                ],
                [
                    -0.7557973974725317,
                    0.08040484035108726,
                    -1.104227222290561,
                    1.8527144005280227,
                    2.275983551392712,
                    1.4413068134582518,
                    2.4769407038098628,
                    -0.3210173433001458,
                    1.68089615821106,
                    -1.887732770525626,
                    0.2353841386571932,
                    0.8739949932731761,
                    -0.11452077998381398,
                    0.3686543314713979,
                    -1.245705265725261,
                    1.540064874139388,
                    0.39495480611269174,
                    -0.6019873030020786,
                    1.4071138507948253,
                    -1.8069897325113036
                ],
                [
                    0.7556177107321224,
                    -1.1047882290460107,
                    -1.589816148623209,
                    0.6543576403666289,
                    0.2592487787467313,
                    1.2236300581413913,
                    0.5220128859313964,
                    0.7550495858030954,
                    1.6993886788773922,
                    0.497853135597888,
                    0.7158703751477462,
                    0.5930530011670453,
                    0.9771884355218233,
                    0.712668817007078,
                    -0.0788831934138861,
                    0.013466164380404873,
                    1.0471404173878642,
                    0.29914318246586946,
                    1.2890245645137062,
                    0.44637179320699294
                ],
                [
                    0.8029653022430401,
                    0.0981065824179234,
                    -0.8294454449838414,
                    0.8117207481589387,
                    0.5868016705055803,
                    0.8707556355057068,
                    1.557271293882426,
                    0.33174473218602957,
                    -0.6682986653644681,
                    -1.0133888685720887,
                    0.5608710835989882,
                    -3.2454094597260625,
                    0.10979277005999141,
                    0.12301785927813891,
                    1.3690713220095956,
                    0.6292893293536513,
                    0.6031655747971391,
                    -1.2669898881315775,
                    1.7257111621180514,
                    0.16493827961137505
                ],
                [
                    0.9038330835479571,
                    -0.5284867291967362,
                    -0.6266637835708683,
                    1.7118150167741895,
                    1.774551613258864,
                    0.4989795034315624,
                    0.29847808359062583,
                    1.2450819401279403,
                    -0.5738545589842686,
                    0.5190860730638288,
                    1.9408770222331961,
                    0.09751296317600008,
                    -0.5783770769312765,
                    0.5135887723728729,
                    -0.9669903878469611,
                    -0.40637207595508323,
                    1.4055727885491753,
                    0.49268676381304044,
                    -1.5678727352447408,
                    0.6475212230540347
                ],
                [
                    -0.8670421335445694,
                    0.6465653423892079,
                    0.5223085636471735,
                    1.296966454178671,
                    2.469663411695164,
                    0.02143218756917683,
                    0.011697571707429523,
                    -0.5273831894277791,
                    -0.5213402317152716,
                    0.8079868312927544,
                    0.8263061128545873,
                    -1.1133027034585827,
                    0.8892216686098133,
                    0.25259656936179337,
                    0.33130209168989344,
                    1.0626880931761788,
                    0.5602907721074558,
                    -0.45021348875483497,
                    -0.06824371725623393,
                    1.0268584049275529
                ],
                [
                    -0.1207855337523401,
                    -2.5925816352872033,
                    0.4059820342114067,
                    0.3453810643470043,
                    0.4902141883204035,
                    -0.19164972105595626,
                    2.1141866081087204,
                    1.1344392466337136,
                    -0.46201602608047065,
                    0.8308344349232403,
                    -0.15250225932935885,
                    0.3682812030340207,
                    -1.1124300493035142,
                    0.07520207811861938,
                    0.32826575699389454,
                    -1.5973198535120865,
                    -0.31897866177779144,
                    -0.23500820438233497,
                    1.0907829362785035,
                    -0.402795291297872
                ],
                [
                    1.5782216313446864,
                    0.9852670020834695,
                    0.1339876153663279,
                    0.13198165259486255,
                    -0.2793958978795112,
                    0.1132862810103621,
                    -1.7746292737088263,
                    -0.714667758473962,
                    0.9806517774583913,
                    -0.033686203670524204,
                    -0.6025060831851241,
                    1.4416482535432749,
                    1.5892177914209917,
                    1.8531906545780035,
                    -0.4028663083169845,
                    0.6631157826510098,
                    -0.6915598497463853,
                    0.23060597386129678,
                    0.4983806706471623,
                    0.2068437670536813
                ],
                [
                    -0.24644324064894294,
                    0.1266303340775692,
                    0.7154762986684401,
                    -0.8192236028294799,
                    -1.1642021148285033,
                    -0.29991026315273095,
                    1.5222584226668336,
                    2.0488733996897013,
                    -0.5808538132312665,
                    1.1140403706931667,
                    1.682387159572654,
                    -0.4648527003656573,
                    -0.09060469700916907,
                    0.5627313677689186,
                    0.24487142286487432,
                    -1.520971551161078,
                    -1.353483345992625,
                    1.276670789269872,
                    0.12723110146753452,
                    -0.822195434272166
                ],
                [
                    0.03756531496685137,
                    -2.229152690053332,
                    -0.5107945422831539,
                    0.7124778472481347,
                    -0.2953996430730273,
                    0.8545064430717647,
                    -1.1763289744812768,
                    -0.012393409423653225,
                    -0.07701829853005482,
                    0.025337809578904455,
                    -0.05139211702601879,
                    -0.12413793730556631,
                    -2.6502860860804205,
                    -1.731808349627277,
                    1.0848835941016193,
                    0.39256108213229957,
                    -0.8213197071878724,
                    -1.1941920016066063,
                    1.0054724422041776,
                    0.25224595324835
                ],
                [
                    0.5564535992145135,
                    0.2720266873373412,
                    -0.282151954458425,
                    -0.1292364388925128,
                    0.9799312991300693,
                    -1.2890615851271832,
                    -1.2688266337164995,
                    0.5249822048493598,
                    0.8860278685167596,
                    0.23661905598078228,
                    0.19943251628410757,
                    -1.2309138188323456,
                    -1.040367588815827,
                    0.24307000383258626,
                    0.11723418394884201,
                    0.1888028497775993,
                    0.22883181090350457,
                    0.15756601537181694,
                    -0.18681241411558427,
                    -0.7788550435493697
                ],
                [
                    1.5741397481555357,
                    -1.3022900849687031,
                    -0.5422455345747562,
                    0.3245862650534072,
                    0.5806336836831126,
                    -0.36631434498530335,
                    0.10978732825334774,
                    0.27173879101813,
                    -1.1761348301389518,
                    2.7995529712497267,
                    1.0525533587644091,
                    -0.010787800848800247,
                    -0.7822039719944106,
                    0.1605840076874276,
                    1.4214589347864506,
                    -0.5764614464448853,
                    1.431987982355095,
                    0.6801715548515744,
                    -0.07473718451186168,
                    1.5223414973051352
                ],
                [
                    -0.40734295982304936,
                    0.34968510454175933,
                    0.5930299304862832,
                    0.9863647269679452,
                    -0.5217396742519511,
                    -0.7098250525165506,
                    -0.4940618164471996,
                    0.09494742337254639,
                    -0.6833633664182509,
                    2.109773400026823,
                    -1.648170310954414,
                    1.7973518988482418,
                    1.7925685764882286,
                    -1.0209853215505607,
                    -0.3176173806889822,
                    -0.387412773897134,
                    1.4471470936281774,
                    1.2526999102322467,
                    0.8305288703981337,
                    0.8771724611034437
                ],
                [
                    1.2991482314946288,
                    -0.7907325921510828,
                    0.6363797706125934,
                    0.3850066352347708,
                    0.926029433407158,
                    0.09691348039394591,
                    0.2933217675712644,
                    0.7503341632198222,
                    0.15242593095272225,
                    -0.4962355114281913,
                    -1.7530530457974423,
                    -0.44629044018474034,
                    -0.0046673391771855175,
                    -3.552974294373025,
                    -0.06659066318007932,
                    0.3804297253367482,
                    0.8980542107632371,
                    0.06983383173773011,
                    1.742388428755853,
                    -2.2898127986109267
                ],
                [
                    -1.1774083389178567,
                    -0.5028384608823646,
                    -0.2778759418439128,
                    -0.06906342046085422,
                    0.3297593962204295,
                    0.5514139030900144,
                    0.1554778824534258,
                    0.16859870787417217,
                    -0.5445151110384858,
                    -1.139517038814486,
                    -0.9019916754814024,
                    -1.687956808736758,
                    0.21635190164980497,
                    -0.08443064264052758,
                    -0.648695024527111,
                    0.5684341039013313,
                    -0.4251657988676995,
                    0.05866339613335376,
                    0.6541746517866034,
                    0.13913823557071692
                ],
                [
                    0.30913333407480353,
                    0.612137926210144,
                    -2.570961976560263,
                    1.1830347410968292,
                    -2.0197192933749815,
                    -0.040253983541774944,
                    -1.0555978906523062,
                    0.47760111576169184,
                    0.8251009303629391,
                    -1.03611946734283,
                    0.3398599260967991,
                    -0.4204966795316225,
                    0.8464919462824805,
                    -1.3189078948075252,
                    -0.29428476283617033,
                    0.4811433150590644,
                    -1.0342959958640066,
                    1.1084722011092676,
                    0.15416114329101238,
                    -0.44020002814679304
                ],
                [
                    -0.5482148985001651,
                    0.11549612913570606,
                    -0.3665737214060752,
                    -0.2982631660645679,
                    -0.28279722029220505,
                    -1.9453660168642408,
                    -0.11735478026530871,
                    -0.28030635994997305,
                    0.8948461424939333,
                    0.17284934539834781,
                    0.61084288798836,
                    0.46099056261087173,
                    1.1876516868654416,
                    0.4330867636866702,
                    -0.08863436391423007,
                    -1.5110165615574536,
                    -1.2462029509321346,
                    0.7424733207215746,
                    0.17750518307423532,
                    -0.16087303819336765
                ],
                [
                    1.261472312518424,
                    -0.6774133654524008,
                    0.7067761140108147,
                    -0.2917926289066483,
                    -1.0023166390231533,
                    -0.07506411606712922,
                    -1.304160102848017,
                    0.6720078852735348,
                    -1.355162409524028,
                    -0.8337874962756535,
                    -0.7895743110901815,
                    -0.5848843108129432,
                    -1.8021533975350537,
                    0.5842596832081487,
                    1.440599688738293,
                    1.3817440731167672,
